const model = {"neuronCounts":[5,8],"network":{"levels":[{"inputs":[-0.5964724479177239,0.7726695341964078,-0.33435767247346576,-1.5951143215751042,0.633983257436268],"outputs":[1.3640239313255496,-2.130372012721459,-2.3349514051856426,1.5593616920194204,-0.13029101233816986,-1.3636768405070567,1.132981512461309,1.3475477646698593],"biases":[-0.36590720480318195,-0.4693267063440274,-0.7711589191520334,-0.5287734540516782,0.8096501293803415,-0.19417196806702552,0.817406989776948,0.824931955032477],"weights":[[-0.9849037556496687,0.7475072789827828,-0.3109384715072294,-0.5548091536575992,0.5947453202080233,0.7641627984592434,-0.24845831304956567,-0.44388585649565737],[0.7326710175984981,-0.4157793967700827,-0.40786746445109445,-0.0185707839474043,-0.7070631802365552,0.044068065725313854,0.3134107671484365,0.6264948821960932],[0.15397594458915043,-0.9612378408654472,0.767091622063476,0.5699315501472224,0.08056083372614786,0.49056362776442475,0.5549275758780707,0.009369366795613399],[-0.0978886584757781,0.9732904572731615,0.7758432446361407,-0.8535265797774083,-0.1445468398216434,0.7022472975217449,0.07909589867555322,-0.21873230488449025],[0.744010255804957,0.5318666688955225,0.09452881590559148,0.9474136096297991,-0.3824996404904559,0.8461352232876971,0.37370754458833133,-0.9022220828616723]]}]}}