{"neuronCounts":[5,8],"network":{"levels":[{"inputs":[0.08090328788662107,0.3267858971313413,0.07634217602439908,-1.1914079462970557,-0.548840662713744],"outputs":[-0.7344060871194547,1.6765707209082383,1.2119740595458497,-0.27182862727358925,1.3474560002441067,1.2478604008331722,0.6473768688527459,-0.6864623272348842],"biases":[0.0681181979101928,0.9190884797922552,0.39987559449049614,-0.8400489511448845,0.2812581093396398,-0.16011098402621826,0.8393557415742254,-0.23485782648975162],"weights":[[-0.7504077845342745,0.7337103758003511,-0.01710015550151356,-0.33695055080516845,-0.44123973084781465,-0.01797618073299656,-0.5062177134536934,-0.18532915901701896],[-0.16867894203480915,-0.39987914357567833,0.7390198634251468,0.32136183550338204,-0.021630277386714525,-0.2868419742955637,-0.8744401425294615,-0.3430328077620448],[0.0621897614917053,-0.7535231593694514,0.5067618718768268,-0.5190856728007498,-0.5219195481521366,0.9200124642732699,0.3503762224356546,0.1856579322787879],[0.3176196997423779,-0.7028186084409489,-0.6123059399452133,-0.3469802699844138,-0.6555797326288304,-0.7757605582589933,-0.46137488974038554,0.7389601532644443],[0.5703385652996396,-0.08924165086744207,0.35750414460762503,-0.21262508854182594,-0.6700408726811133,-0.9268237877063932,0.8047940175843484,-0.9870205074855138]]}]}}