const model = {"neuronCounts":[5,12,8],"network":{"levels":[{"weights":[[-0.3060377521881241,5.841006914717505e-215,0.4631976978189129,0.9739534308180715,1.049812351970945e-219,-0.19192241990610537,0.07730051355861987,-1.0207024120711816,0.7472563465256993,1.6956351650117345,-1.2286649585717608,1.4187605016810172],[1.4514784461908365,1.8378873554182253e-200,-0.5206878117089292,-1.0433631248766069,5.5418842700203495e-217,-0.04327380684291832,-0.7485023302007761,1.9350265489518632,1.9398636899706114,-0.8363771952910728,1.7775307258824482,-1.782612465017371],[-0.3785035421259532,2.4186046661795565e-160,2.461172371684029,2.587868210047744,-8.699884734288748e-226,-2.52980506887327,-6.148307931659318,2.0500456864461833,0.09982269264934968,-1.6613262073230732,1.813933475072073,3.295552169084626],[-1.4381128835913755,2.8251911241420685e-202,-1.4464878560180714,-1.3381756913034937,4.9850832016893714e-160,-1.2997749931113083,2.0467890345669475,-0.7485085976431753,-0.8097567816373814,2.754709662682297,-0.38998291563331267,-0.704064845611364],[0.6855506613867628,7.468886171677246e-182,-1.3902397701939004,0.35452555839319516,-1.1244313566742852e-166,1.6897244844137072,-0.4380770019831822,-0.35405918264177016,0.25029833193009926,2.365551467910556,-0.8238470515343586,0.31743338374576646]],"biases":[1.0794312568072457,-0.28685658612391124,1.7880294384821371,1.3975958047459518,-0.5140801652006459,1.3940552054431987,-0.06266498551646768,0.6059195075413137,0.13821457291576092,-0.5730306406569853,0.5419002692730827,0.9774698776109814],"inputs":[0.3435114503816794,0.3625,0.007844621719819993,0.9824335634270528,0.033623474700084366],"outputs":[0.10769573479987693,0,0.30987787539005596,0.07149334301569832,0,0.07246736816582078,1.6404299551928379,0.22556082966797397,0.31177300233284394,2.479077535300629,0.36759139141488584,0.16346197503291882]},{"weights":[[-3.3899233365215586,-3.198742772512908,-0.612831960246381,1.2528340278940728,0.356661589253373,0.6755782182623,-0.06186449787903256,1.3220614212946344],[-1.228147667489344e-174,3.7202125421408273e-209,7.70538456806207e-218,1.011693858294106e-158,-8.144896885583868e-159,-6.269505712285209e-182,6.933497841032696e-196,9.089828918795489e-155],[-0.20512175751358097,-5.796183430314007,2.0481928062033234,-0.13257126856049253,1.9355920091033416,-0.10820787356028845,-1.186586177240836,0.16182881166764126],[1.2310648593735993,-5.299157271322007,1.5498955582249587,-0.9480821392747548,1.7792135978178363,-1.7033867721787168,0.27519109052994356,0.7288299116630045],[1.3691498176019226e-170,3.525106660147346e-185,-8.254428589564564e-233,1.815286749308564e-178,-1.5299820821602752e-220,-8.127528590877316e-177,3.777985383519421e-222,5.855916970789191e-171],[-3.4803589571136815,-4.9911630289931574,-0.4290855452173135,3.656016512228542,-2.0672845640675206,-2.780036839660513,2.2542690667385132,2.2187147211956963],[-1.4242694331119792,2.6797575660699144,0.4024035507706914,0.7358182705490091,-0.3263287505643868,0.699235730993034,0.507397906441001,-4.657906715740546],[-2.470284320393255,-1.5748368388204286,0.42921672448231407,-0.06908436750271493,1.4151312984143303,0.7399633189941689,-1.5297447881341646,0.6470647579961792],[-1.5115972200717498,-1.3614134220655238,-2.1088860165061094,0.1121673804621454,-0.29654913335702304,1.8052194617626989,-1.3819701386400238,1.1225225475533243],[1.408254465911551,2.51258951222774,-0.7199342790422759,-0.5469198523411642,-2.7426306162702057,-0.371485250436252,0.38465654650336545,-0.5181195971656134],[-3.866944397934778,-1.5325944083987573,-0.11826431902168999,-0.8034453571862675,2.15407640519452,0.6564310489842116,-2.7656191923534963,0.4186104904139232],[1.7836590981414633,-4.196381184097518,0.921983202960693,-1.0245726734277947,1.1489028147942986,-2.4785214096149204,0.4565606517623579,0.9451688852999507]],"biases":[-0.5887379367434029,-0.1632941130969488,0.17810907306340693,0.4038974328954306,-0.468954576992526,-0.34139578724731584,0.2332238604703135,0.03807191164107478],"inputs":[0.10769573479987693,0,0.30987787539005596,0.07149334301569832,0,0.07246736816582078,1.6404299551928379,0.22556082966797397,0.31177300233284394,2.479077535300629,0.36759139141488584,0.16346197503291882],"outputs":[0,5.5514230873946255,0,0.1026731213144047,0,0.16657344077463027,0.1099449359161747,0]}]}}